# CLASES: {np.int64(0): 'Clear', np.int64(1): 'Cloudy', np.int64(2): 'Rain', np.int64(3): 'Storm'}

import math
def softmax(x):
    m = max(x)
    exps = [math.exp(i - m) for i in x]
    s = sum(exps)
    for idx, _ in enumerate(exps):
        exps[idx] /= s
    return exps
def score(input):
    if input[6] < 22.796398:
        if input[0] < 11.1:
            if input[1] < 56.0:
                if input[7] < 3.0:
                    if input[0] < 0.6:
                        if input[1] < 38.0:
                            if input[2] < 1022.3:
                                var0 = 0.12543286
                            else:
                                var0 = -0.055770364
                        else:
                            if input[0] < -0.3:
                                var0 = -0.037973225
                            else:
                                var0 = 0.025743518
                    else:
                        if input[2] < 989.9:
                            if input[8] < 20.0:
                                var0 = -0.06546432
                            else:
                                var0 = 0.0044417293
                        else:
                            if input[5] < -26.0:
                                var0 = 0.094631955
                            else:
                                var0 = 0.13297537
                else:
                    if input[7] < 11.0:
                        if input[2] < 1013.1:
                            if input[6] < -6.452102:
                                var0 = -0.030236647
                            else:
                                var0 = 0.013840211
                        else:
                            if input[5] < -3.0:
                                var0 = 0.041880853
                            else:
                                var0 = -0.0052709626
                    else:
                        if input[4] < 5.0:
                            if input[5] < -20.0:
                                var0 = 0.07416066
                            else:
                                var0 = 0.12927635
                        else:
                            if input[3] < -13.5:
                                var0 = -0.06006508
                            else:
                                var0 = 0.06248502
            else:
                if input[5] < 19.0:
                    if input[1] < 78.0:
                        if input[2] < 1013.1:
                            if input[6] < -1.1091462:
                                var0 = -0.0054913447
                            else:
                                var0 = 0.01521385
                        else:
                            if input[0] < 1.0:
                                var0 = 0.0033704396
                            else:
                                var0 = 0.03805764
                    else:
                        if input[7] < 10.0:
                            if input[7] < 3.0:
                                var0 = -0.006797155
                            else:
                                var0 = 0.02172763
                        else:
                            if input[5] < 11.0:
                                var0 = -0.012483088
                            else:
                                var0 = 0.011532732
                else:
                    if input[2] < 1011.1:
                        if input[7] < 12.0:
                            if input[7] < 5.0:
                                var0 = 0.025863243
                            else:
                                var0 = -0.00072939217
                        else:
                            if input[4] < 7.9:
                                var0 = 0.07501934
                            else:
                                var0 = -0.05930341
                    else:
                        if input[1] < 83.0:
                            if input[7] < 3.0:
                                var0 = 0.115579545
                            else:
                                var0 = 0.047103547
                        else:
                            if input[5] < 34.0:
                                var0 = 0.025559163
                            else:
                                var0 = 0.061759062
        else:
            if input[1] < 51.0:
                if input[5] < -11.0:
                    if input[3] < 4.1:
                        if input[6] < 11.278114:
                            if input[2] < 1017.1:
                                var0 = 0.09625183
                            else:
                                var0 = 0.065356225
                        else:
                            if input[7] < 5.0:
                                var0 = -0.0003887278
                            else:
                                var0 = 0.074243836
                    else:
                        if input[8] < 9.0:
                            if input[7] < 2.0:
                                var0 = -0.018940948
                            else:
                                var0 = 0.07900106
                        else:
                            if input[8] < 18.0:
                                var0 = 0.0147055555
                            else:
                                var0 = 0.05345231
                else:
                    if input[0] < 30.0:
                        if input[4] < 7.3:
                            if input[3] < -7.0:
                                var0 = 0.06604482
                            else:
                                var0 = 0.10171143
                        else:
                            if input[7] < 4.0:
                                var0 = 0.09637626
                            else:
                                var0 = 0.0097776605
                    else:
                        if input[7] < 4.0:
                            if input[3] < -7.0:
                                var0 = 0.10016967
                            else:
                                var0 = -0.03719379
                        else:
                            if input[7] < 11.0:
                                var0 = 0.15358059
                            else:
                                var0 = -0.018940948
            else:
                if input[7] < 3.0:
                    if input[6] < 13.309319:
                        if input[2] < 1009.3:
                            if input[1] < 72.0:
                                var0 = 0.08270322
                            else:
                                var0 = -0.01448776
                        else:
                            if input[3] < 18.6:
                                var0 = 0.10430496
                            else:
                                var0 = -0.03823193
                    else:
                        if input[6] < 21.898176:
                            if input[6] < 17.97828:
                                var0 = 0.016170856
                            else:
                                var0 = -0.010613506
                        else:
                            if input[3] < -6.1:
                                var0 = 0.088873856
                            else:
                                var0 = -0.060059536
                else:
                    if input[8] < 8.0:
                        if input[1] < 84.0:
                            if input[0] < 30.0:
                                var0 = 0.083294734
                            else:
                                var0 = -0.0052295784
                        else:
                            if input[7] < 9.0:
                                var0 = 0.065173216
                            else:
                                var0 = 0.0362231
                    else:
                        if input[8] < 19.0:
                            if input[2] < 1017.8:
                                var0 = 0.03849184
                            else:
                                var0 = 0.057624932
                        else:
                            if input[0] < 26.0:
                                var0 = 0.06220762
                            else:
                                var0 = 0.11953633
    else:
        if input[3] < -4.0:
            if input[7] < 6.0:
                if input[0] < 27.8:
                    if input[6] < 23.05961:
                        if input[2] < 1007.2:
                            var0 = 0.09131747
                        else:
                            var0 = 0.0034662005
                    else:
                        if input[2] < 1007.2:
                            if input[8] < 23.0:
                                var0 = -0.06706884
                            else:
                                var0 = 0.0034662005
                        else:
                            if input[0] < 26.1:
                                var0 = -0.045450546
                            else:
                                var0 = 0.047391836
                else:
                    var0 = -0.06729935
            else:
                if input[7] < 10.0:
                    if input[7] < 9.0:
                        if input[3] < -5.0:
                            if input[7] < 7.0:
                                var0 = 0.06526399
                            else:
                                var0 = 0.1384154
                        else:
                            if input[3] < -4.9:
                                var0 = -0.0010482183
                            else:
                                var0 = 0.111053266
                    else:
                        if input[5] < 7.0:
                            if input[2] < 1010.8:
                                var0 = -0.035655033
                            else:
                                var0 = 0.05435583
                        else:
                            if input[5] < 14.0:
                                var0 = 0.10633067
                            else:
                                var0 = 0.15297559
                else:
                    if input[1] < 80.0:
                        var0 = -0.068414204
                    else:
                        if input[8] < 14.0:
                            if input[4] < -1.9:
                                var0 = -0.045450546
                            else:
                                var0 = 0.060729813
                        else:
                            if input[7] < 11.0:
                                var0 = 0.0034662005
                            else:
                                var0 = -0.06178239
        else:
            if input[3] < 4.1:
                if input[2] < 1012.1:
                    if input[7] < 10.0:
                        if input[7] < 7.0:
                            if input[8] < 14.0:
                                var0 = -0.06380874
                            else:
                                var0 = -0.0529189
                        else:
                            if input[2] < 1007.0:
                                var0 = 0.03248991
                            else:
                                var0 = -0.029284257
                    else:
                        if input[7] < 11.0:
                            if input[4] < -0.9:
                                var0 = -0.051657237
                            else:
                                var0 = -0.067654036
                        else:
                            var0 = -0.068355806
                else:
                    if input[7] < 7.0:
                        if input[0] < 24.2:
                            if input[2] < 1013.4:
                                var0 = -0.03469824
                            else:
                                var0 = 0.0651545
                        else:
                            if input[5] < 29.0:
                                var0 = -0.057496544
                            else:
                                var0 = 0.028565964
                    else:
                        if input[7] < 10.0:
                            if input[2] < 1013.0:
                                var0 = 0.10110952
                            else:
                                var0 = 0.051517524
                        else:
                            if input[8] < 20.0:
                                var0 = -0.06897677
                            else:
                                var0 = 0.03505204
            else:
                if input[7] < 6.0:
                    if input[3] < 4.5:
                        if input[2] < 1010.4:
                            var0 = -0.040459435
                        else:
                            var0 = 0.047391836
                    else:
                        if input[8] < 1.0:
                            var0 = -0.008442291
                        else:
                            if input[8] < 14.0:
                                var0 = -0.06521974
                            else:
                                var0 = -0.045118455
                else:
                    if input[7] < 9.0:
                        if input[2] < 1018.1:
                            if input[2] < 1010.6:
                                var0 = 0.048666954
                            else:
                                var0 = 0.116626345
                        else:
                            var0 = -0.064211145
                    else:
                        if input[1] < 96.0:
                            if input[1] < 86.0:
                                var0 = 0.0206961
                            else:
                                var0 = -0.058645893
                        else:
                            if input[4] < -0.8:
                                var0 = -0.02036626
                            else:
                                var0 = 0.13277264
    if input[6] < 22.796398:
        if input[0] < 10.2:
            if input[1] < 60.0:
                if input[7] < 3.0:
                    if input[0] < 0.6:
                        if input[1] < 38.0:
                            if input[2] < 1022.3:
                                var1 = 0.113730505
                            else:
                                var1 = -0.05465565
                        else:
                            if input[0] < 0.0:
                                var1 = -0.023934197
                            else:
                                var1 = 0.036441647
                    else:
                        if input[2] < 992.0:
                            if input[8] < 21.0:
                                var1 = -0.052087523
                            else:
                                var1 = 0.04639631
                        else:
                            if input[5] < -26.0:
                                var1 = 0.08305734
                            else:
                                var1 = 0.113060474
                else:
                    if input[7] < 12.0:
                        if input[2] < 1013.1:
                            if input[6] < -9.05217:
                                var1 = -0.034311667
                            else:
                                var1 = 0.0049647014
                        else:
                            if input[5] < -25.0:
                                var1 = 0.048341718
                            else:
                                var1 = 0.01841132
                    else:
                        if input[4] < 4.7:
                            if input[0] < 0.6:
                                var1 = 0.04225227
                            else:
                                var1 = 0.10849079
                        else:
                            if input[2] < 1010.9:
                                var1 = -0.059392024
                            else:
                                var1 = 0.04755912
            else:
                if input[5] < 12.0:
                    if input[0] < 4.0:
                        if input[1] < 75.0:
                            if input[7] < 12.0:
                                var1 = -0.002647026
                            else:
                                var1 = 0.032590307
                        else:
                            if input[7] < 10.0:
                                var1 = -0.0027402749
                            else:
                                var1 = -0.021356305
                    else:
                        if input[1] < 80.0:
                            if input[7] < 6.0:
                                var1 = 0.028088305
                            else:
                                var1 = 0.0101863
                        else:
                            if input[7] < 2.0:
                                var1 = -0.021991832
                            else:
                                var1 = 0.0061562527
                else:
                    if input[7] < 12.0:
                        if input[7] < 5.0:
                            if input[0] < 7.6:
                                var1 = 0.021567931
                            else:
                                var1 = 0.05344924
                        else:
                            if input[4] < -8.0:
                                var1 = 0.037264135
                            else:
                                var1 = 0.0033927995
                    else:
                        if input[1] < 90.0:
                            if input[0] < 1.0:
                                var1 = 0.038480252
                            else:
                                var1 = 0.10339015
                        else:
                            if input[5] < 39.0:
                                var1 = 0.0066428753
                            else:
                                var1 = 0.112867475
        else:
            if input[1] < 49.0:
                if input[0] < 31.0:
                    if input[5] < -11.0:
                        if input[8] < 9.0:
                            if input[2] < 1021.2:
                                var1 = 0.08878162
                            else:
                                var1 = 0.055967044
                        else:
                            if input[3] < 5.3:
                                var1 = 0.05866464
                            else:
                                var1 = 0.01667502
                    else:
                        if input[2] < 1019.2:
                            if input[3] < -5.0:
                                var1 = 0.06727686
                            else:
                                var1 = 0.102489226
                        else:
                            if input[7] < 4.0:
                                var1 = 0.0986157
                            else:
                                var1 = 0.05271054
                else:
                    if input[7] < 11.0:
                        if input[7] < 4.0:
                            if input[6] < 5.674392:
                                var1 = 0.094162725
                            else:
                                var1 = -0.0062862965
                        else:
                            if input[2] < 1014.1:
                                var1 = 0.13203542
                            else:
                                var1 = 0.054191787
                    else:
                        if input[2] < 1007.8:
                            if input[3] < -1.5:
                                var1 = -0.0654221
                            else:
                                var1 = 0.018037153
                        else:
                            if input[4] < 13.9:
                                var1 = -0.014415773
                            else:
                                var1 = 0.10308442
            else:
                if input[7] < 3.0:
                    if input[6] < 13.309319:
                        if input[2] < 1009.3:
                            if input[1] < 72.0:
                                var1 = 0.081448
                            else:
                                var1 = -0.017301206
                        else:
                            if input[3] < 18.6:
                                var1 = 0.09218514
                            else:
                                var1 = -0.026129175
                    else:
                        if input[6] < 21.898176:
                            if input[3] < -4.1:
                                var1 = 0.023258163
                            else:
                                var1 = -0.0068866783
                        else:
                            if input[3] < -6.1:
                                var1 = 0.08453578
                            else:
                                var1 = -0.05796758
                else:
                    if input[0] < 13.4:
                        if input[4] < -0.1:
                            if input[2] < 1015.7:
                                var1 = 0.03515387
                            else:
                                var1 = 0.05715592
                        else:
                            if input[2] < 1017.1:
                                var1 = 0.012150504
                            else:
                                var1 = 0.03783111
                    else:
                        if input[8] < 8.0:
                            if input[0] < 31.0:
                                var1 = 0.069520995
                            else:
                                var1 = -0.020355629
                        else:
                            if input[8] < 18.0:
                                var1 = 0.042538144
                            else:
                                var1 = 0.059349682
    else:
        if input[3] < -4.0:
            if input[7] < 6.0:
                if input[0] < 27.8:
                    if input[6] < 23.05961:
                        if input[3] < -5.6:
                            var1 = 0.08780172
                        else:
                            var1 = 0.0028015578
                    else:
                        if input[2] < 1007.2:
                            if input[8] < 23.0:
                                var1 = -0.065184705
                            else:
                                var1 = 0.0045191767
                        else:
                            if input[0] < 26.1:
                                var1 = -0.043855865
                            else:
                                var1 = 0.045380894
                else:
                    var1 = -0.06548306
            else:
                if input[7] < 10.0:
                    if input[7] < 9.0:
                        if input[3] < -5.0:
                            if input[4] < -6.6:
                                var1 = -0.0017069288
                            else:
                                var1 = 0.1193155
                        else:
                            if input[3] < -4.9:
                                var1 = -0.0015473323
                            else:
                                var1 = 0.09983304
                    else:
                        if input[5] < 5.0:
                            if input[5] < -7.0:
                                var1 = -0.063571475
                            else:
                                var1 = 0.012705515
                        else:
                            if input[5] < 14.0:
                                var1 = 0.084572494
                            else:
                                var1 = 0.13560581
                else:
                    if input[1] < 80.0:
                        var1 = -0.06663237
                    else:
                        if input[8] < 14.0:
                            if input[4] < -1.9:
                                var1 = -0.044210013
                            else:
                                var1 = 0.058428504
                        else:
                            if input[7] < 11.0:
                                var1 = 0.0043556835
                            else:
                                var1 = -0.059843153
        else:
            if input[3] < 4.1:
                if input[2] < 1012.1:
                    if input[7] < 10.0:
                        if input[7] < 7.0:
                            if input[8] < 14.0:
                                var1 = -0.061648905
                            else:
                                var1 = -0.05065548
                        else:
                            if input[6] < 23.895533:
                                var1 = 0.005782071
                            else:
                                var1 = -0.03304194
                    else:
                        if input[7] < 11.0:
                            if input[4] < -0.9:
                                var1 = -0.04940133
                            else:
                                var1 = -0.06554331
                        else:
                            if input[3] < 0.1:
                                var1 = -0.06468935
                            else:
                                var1 = -0.06816094
                else:
                    if input[7] < 7.0:
                        if input[0] < 24.2:
                            if input[2] < 1013.4:
                                var1 = -0.033166416
                            else:
                                var1 = 0.060593672
                        else:
                            if input[5] < 29.0:
                                var1 = -0.0554804
                            else:
                                var1 = 0.028103262
                    else:
                        if input[7] < 10.0:
                            if input[2] < 1013.0:
                                var1 = 0.09295483
                            else:
                                var1 = 0.047654357
                        else:
                            if input[8] < 20.0:
                                var1 = -0.066993095
                            else:
                                var1 = 0.035454758
            else:
                if input[7] < 6.0:
                    if input[3] < 4.5:
                        if input[8] < 9.0:
                            var1 = -0.040076707
                        else:
                            var1 = 0.047171388
                    else:
                        if input[8] < 1.0:
                            var1 = -0.007906835
                        else:
                            if input[8] < 14.0:
                                var1 = -0.06316163
                            else:
                                var1 = -0.043387115
                else:
                    if input[7] < 9.0:
                        if input[2] < 1018.1:
                            if input[2] < 1010.6:
                                var1 = 0.044967934
                            else:
                                var1 = 0.105332665
                        else:
                            var1 = -0.063177355
                    else:
                        if input[1] < 96.0:
                            if input[1] < 86.0:
                                var1 = 0.019262018
                            else:
                                var1 = -0.056958225
                        else:
                            if input[4] < -0.8:
                                var1 = -0.019692952
                            else:
                                var1 = 0.120128684
    if input[6] < 22.796398:
        if input[0] < 10.2:
            if input[1] < 60.0:
                if input[7] < 3.0:
                    if input[0] < 0.6:
                        if input[1] < 38.0:
                            if input[2] < 1022.3:
                                var2 = 0.1043885
                            else:
                                var2 = -0.053548496
                        else:
                            if input[0] < 0.0:
                                var2 = -0.02281566
                            else:
                                var2 = 0.03433652
                    else:
                        if input[3] < -20.2:
                            if input[1] < 36.0:
                                var2 = 0.090836726
                            else:
                                var2 = -0.028490303
                        else:
                            if input[3] < 30.2:
                                var2 = 0.09727744
                            else:
                                var2 = -0.001999649
                else:
                    if input[7] < 12.0:
                        if input[2] < 1013.1:
                            if input[6] < -9.05217:
                                var2 = -0.03293109
                            else:
                                var2 = 0.0042073685
                        else:
                            if input[5] < -2.0:
                                var2 = 0.03416079
                            else:
                                var2 = 0.0010889559
                    else:
                        if input[4] < 5.0:
                            if input[5] < -24.0:
                                var2 = 0.04864766
                            else:
                                var2 = 0.10394441
                        else:
                            if input[3] < 0.8:
                                var2 = -0.048813205
                            else:
                                var2 = 0.051969856
            else:
                if input[5] < 12.0:
                    if input[0] < 4.0:
                        if input[1] < 75.0:
                            if input[7] < 12.0:
                                var2 = -0.0025536034
                            else:
                                var2 = 0.03017856
                        else:
                            if input[7] < 10.0:
                                var2 = -0.0023243027
                            else:
                                var2 = -0.0201051
                    else:
                        if input[1] < 87.0:
                            if input[7] < 6.0:
                                var2 = 0.02203728
                            else:
                                var2 = 0.0068802014
                        else:
                            if input[4] < -7.1:
                                var2 = 0.068885766
                            else:
                                var2 = -0.0027953142
                else:
                    if input[7] < 12.0:
                        if input[7] < 5.0:
                            if input[0] < 6.1:
                                var2 = 0.016092932
                            else:
                                var2 = 0.042450067
                        else:
                            if input[2] < 983.0:
                                var2 = 0.048216607
                            else:
                                var2 = 0.0036914411
                    else:
                        if input[1] < 90.0:
                            if input[0] < 1.0:
                                var2 = 0.036086496
                            else:
                                var2 = 0.09343212
                        else:
                            if input[5] < 39.0:
                                var2 = 0.006266352
                            else:
                                var2 = 0.101922706
        else:
            if input[1] < 51.0:
                if input[5] < -12.0:
                    if input[3] < 3.8:
                        if input[6] < 11.278114:
                            if input[8] < 11.0:
                                var2 = 0.082786046
                            else:
                                var2 = 0.060744643
                        else:
                            if input[7] < 5.0:
                                var2 = -0.003978818
                            else:
                                var2 = 0.055590298
                    else:
                        if input[8] < 9.0:
                            if input[7] < 2.0:
                                var2 = -0.014438326
                            else:
                                var2 = 0.06328126
                        else:
                            if input[8] < 17.0:
                                var2 = 0.009737612
                            else:
                                var2 = 0.042033773
                else:
                    if input[0] < 29.0:
                        if input[7] < 10.0:
                            if input[7] < 5.0:
                                var2 = 0.08359256
                            else:
                                var2 = 0.055593085
                        else:
                            if input[4] < -8.3:
                                var2 = -0.007292329
                            else:
                                var2 = 0.097075425
                    else:
                        if input[7] < 4.0:
                            if input[4] < 3.7:
                                var2 = -0.033898067
                            else:
                                var2 = 0.06595883
                        else:
                            if input[7] < 11.0:
                                var2 = 0.1175878
                            else:
                                var2 = -0.003856979
            else:
                if input[7] < 3.0:
                    if input[6] < 13.695654:
                        if input[2] < 1011.0:
                            if input[1] < 73.0:
                                var2 = 0.07877328
                            else:
                                var2 = -0.012175646
                        else:
                            if input[3] < 18.6:
                                var2 = 0.08265608
                            else:
                                var2 = -0.027375985
                    else:
                        if input[6] < 20.917152:
                            if input[2] < 1005.8:
                                var2 = 0.05596462
                            else:
                                var2 = -0.001491747
                        else:
                            if input[2] < 1013.2:
                                var2 = -0.05154155
                            else:
                                var2 = 0.008188088
                else:
                    if input[8] < 7.0:
                        if input[1] < 84.0:
                            if input[0] < 30.0:
                                var2 = 0.06777729
                            else:
                                var2 = -0.0027407357
                        else:
                            if input[7] < 10.0:
                                var2 = 0.0495861
                            else:
                                var2 = 0.0225183
                    else:
                        if input[8] < 19.0:
                            if input[2] < 1016.0:
                                var2 = 0.029994652
                            else:
                                var2 = 0.045382213
                        else:
                            if input[0] < 26.0:
                                var2 = 0.05042115
                            else:
                                var2 = 0.09846826
    else:
        if input[3] < -4.0:
            if input[7] < 6.0:
                if input[0] < 27.8:
                    if input[6] < 23.05961:
                        if input[2] < 1007.2:
                            var2 = 0.083731286
                        else:
                            var2 = 0.002888328
                    else:
                        if input[2] < 1007.2:
                            if input[8] < 23.0:
                                var2 = -0.06345231
                            else:
                                var2 = 0.0055667055
                        else:
                            if input[0] < 26.1:
                                var2 = -0.042218328
                            else:
                                var2 = 0.043551147
                else:
                    var2 = -0.06381973
            else:
                if input[7] < 10.0:
                    if input[3] < -11.1:
                        if input[7] < 7.0:
                            if input[8] < 15.0:
                                var2 = 0.081637725
                            else:
                                var2 = -0.05454814
                        else:
                            var2 = 0.12704465
                    else:
                        if input[7] < 9.0:
                            if input[4] < -5.8:
                                var2 = -0.00948103
                            else:
                                var2 = 0.094101034
                        else:
                            if input[5] < 6.0:
                                var2 = -0.02174093
                            else:
                                var2 = 0.103132024
                else:
                    if input[1] < 80.0:
                        var2 = -0.06516194
                    else:
                        if input[8] < 18.0:
                            if input[4] < -1.9:
                                var2 = -0.043286745
                            else:
                                var2 = 0.029215029
                        else:
                            var2 = -0.057128627
        else:
            if input[3] < 4.1:
                if input[2] < 1012.1:
                    if input[7] < 10.0:
                        if input[7] < 7.0:
                            if input[8] < 14.0:
                                var2 = -0.059694875
                            else:
                                var2 = -0.04846291
                        else:
                            if input[2] < 1006.0:
                                var2 = 0.06236439
                            else:
                                var2 = -0.024726255
                    else:
                        if input[7] < 11.0:
                            if input[4] < -0.9:
                                var2 = -0.047519315
                            else:
                                var2 = -0.06378188
                        else:
                            if input[3] < 0.1:
                                var2 = -0.06284644
                            else:
                                var2 = -0.06635377
                else:
                    if input[7] < 7.0:
                        if input[0] < 24.2:
                            if input[2] < 1013.4:
                                var2 = -0.031428747
                            else:
                                var2 = 0.056999862
                        else:
                            if input[5] < 29.0:
                                var2 = -0.05327878
                            else:
                                var2 = 0.026645947
                    else:
                        if input[7] < 10.0:
                            if input[2] < 1013.0:
                                var2 = 0.08621677
                            else:
                                var2 = 0.04411939
                        else:
                            if input[8] < 20.0:
                                var2 = -0.0651785
                            else:
                                var2 = 0.035138395
            else:
                if input[7] < 6.0:
                    if input[3] < 4.5:
                        if input[8] < 9.0:
                            var2 = -0.03895057
                        else:
                            var2 = 0.0465851
                    else:
                        if input[8] < 1.0:
                            var2 = -0.006847168
                        else:
                            if input[0] < 26.1:
                                var2 = -0.045448408
                            else:
                                var2 = -0.06480568
                else:
                    if input[7] < 9.0:
                        if input[2] < 1018.1:
                            if input[2] < 1011.1:
                                var2 = 0.048561372
                            else:
                                var2 = 0.09855086
                        else:
                            var2 = -0.06213702
                    else:
                        if input[3] < 5.0:
                            if input[5] < -6.0:
                                var2 = 0.022645453
                            else:
                                var2 = 0.10757722
                        else:
                            if input[1] < 96.0:
                                var2 = -0.023796646
                            else:
                                var2 = 0.058549225
    if input[6] < 22.796398:
        if input[0] < 11.1:
            if input[1] < 56.0:
                if input[7] < 3.0:
                    if input[0] < 0.6:
                        if input[1] < 38.0:
                            if input[2] < 1022.3:
                                var3 = 0.09608146
                            else:
                                var3 = -0.052359935
                        else:
                            if input[2] < 1015.0:
                                var3 = -0.040599868
                            else:
                                var3 = 0.01648601
                    else:
                        if input[2] < 989.9:
                            if input[8] < 20.0:
                                var3 = -0.06450497
                            else:
                                var3 = 0.0026401528
                        else:
                            if input[5] < -27.0:
                                var3 = 0.06739249
                            else:
                                var3 = 0.09577194
                else:
                    if input[7] < 11.0:
                        if input[3] < 27.8:
                            if input[6] < -9.05217:
                                var3 = -0.017910182
                            else:
                                var3 = 0.01820095
                        else:
                            if input[2] < 1024.2:
                                var3 = 0.005289256
                            else:
                                var3 = 0.08227065
                    else:
                        if input[2] < 995.0:
                            if input[1] < 46.0:
                                var3 = 0.070507795
                            else:
                                var3 = -0.051162656
                        else:
                            if input[0] < 2.1:
                                var3 = 0.037116494
                            else:
                                var3 = 0.08740582
            else:
                if input[5] < 12.0:
                    if input[1] < 81.0:
                        if input[0] < 9.1:
                            if input[7] < 12.0:
                                var3 = 0.0061304085
                            else:
                                var3 = 0.030306323
                        else:
                            if input[4] < -2.1:
                                var3 = 0.05350961
                            else:
                                var3 = 0.020513007
                    else:
                        if input[7] < 10.0:
                            if input[7] < 3.0:
                                var3 = -0.008861089
                            else:
                                var3 = 0.019946106
                        else:
                            if input[6] < -15.032539:
                                var3 = 0.091337726
                            else:
                                var3 = -0.012846144
                else:
                    if input[2] < 1011.1:
                        if input[0] < 4.0:
                            if input[3] < 9.6:
                                var3 = -0.0007211905
                            else:
                                var3 = 0.03256508
                        else:
                            if input[7] < 4.0:
                                var3 = 0.03604206
                            else:
                                var3 = 0.009853355
                    else:
                        if input[1] < 83.0:
                            if input[7] < 3.0:
                                var3 = 0.083082445
                            else:
                                var3 = 0.03575688
                        else:
                            if input[5] < 34.0:
                                var3 = 0.015027747
                            else:
                                var3 = 0.0492973
        else:
            if input[1] < 47.0:
                if input[2] < 1016.1:
                    if input[5] < -27.0:
                        if input[8] < 12.0:
                            if input[2] < 1006.0:
                                var3 = 0.035840426
                            else:
                                var3 = 0.076706916
                        else:
                            if input[6] < 6.1584325:
                                var3 = 0.046485644
                            else:
                                var3 = 0.009826555
                    else:
                        if input[3] < -6.0:
                            if input[6] < 4.196703:
                                var3 = 0.08237387
                            else:
                                var3 = 0.04831607
                        else:
                            if input[0] < 31.0:
                                var3 = 0.08601641
                            else:
                                var3 = 0.10683655
                else:
                    if input[4] < 6.1:
                        if input[5] < -6.0:
                            if input[3] < 3.8:
                                var3 = 0.0569837
                            else:
                                var3 = 0.031552326
                        else:
                            if input[6] < 14.091492:
                                var3 = 0.06972089
                            else:
                                var3 = -0.005724856
                    else:
                        if input[2] < 1025.1:
                            if input[3] < -3.1:
                                var3 = 0.055467542
                            else:
                                var3 = 0.022016924
                        else:
                            if input[8] < 6.0:
                                var3 = 0.08025344
                            else:
                                var3 = -0.039374243
            else:
                if input[7] < 3.0:
                    if input[6] < 13.309319:
                        if input[3] < 19.4:
                            if input[2] < 1009.3:
                                var3 = 0.019988189
                            else:
                                var3 = 0.07561646
                        else:
                            if input[2] < 1018.5:
                                var3 = 0.0747677
                            else:
                                var3 = -0.06377127
                    else:
                        if input[6] < 21.898176:
                            if input[6] < 18.645767:
                                var3 = 0.010123099
                            else:
                                var3 = -0.012537553
                        else:
                            if input[3] < -6.1:
                                var3 = 0.08484078
                            else:
                                var3 = -0.054095186
                else:
                    if input[8] < 8.0:
                        if input[0] < 20.0:
                            if input[1] < 78.0:
                                var3 = 0.05784712
                            else:
                                var3 = 0.037893336
                        else:
                            if input[0] < 31.0:
                                var3 = 0.07020168
                            else:
                                var3 = -0.017313413
                    else:
                        if input[8] < 18.0:
                            if input[2] < 1016.0:
                                var3 = 0.027099136
                            else:
                                var3 = 0.040882442
                        else:
                            if input[0] < 26.0:
                                var3 = 0.045565113
                            else:
                                var3 = 0.08506925
    else:
        if input[3] < -4.0:
            if input[7] < 6.0:
                if input[0] < 27.8:
                    if input[6] < 23.05961:
                        if input[3] < -5.6:
                            var3 = 0.08123147
                        else:
                            var3 = 0.0024656726
                    else:
                        if input[2] < 1007.2:
                            if input[8] < 23.0:
                                var3 = -0.06193758
                            else:
                                var3 = 0.006502237
                        else:
                            if input[0] < 26.1:
                                var3 = -0.040723465
                            else:
                                var3 = 0.04179314
                else:
                    var3 = -0.062441975
            else:
                if input[7] < 10.0:
                    if input[3] < -11.1:
                        if input[7] < 7.0:
                            if input[8] < 15.0:
                                var3 = 0.077595755
                            else:
                                var3 = -0.053876586
                        else:
                            var3 = 0.11512122
                    else:
                        if input[6] < 24.886425:
                            if input[7] < 9.0:
                                var3 = 0.07450415
                            else:
                                var3 = 0.019679232
                        else:
                            if input[5] < -8.0:
                                var3 = 0.046501905
                            else:
                                var3 = 0.11220167
                else:
                    if input[1] < 80.0:
                        var3 = -0.063755766
                    else:
                        if input[8] < 18.0:
                            if input[4] < -1.9:
                                var3 = -0.04274645
                            else:
                                var3 = 0.028638193
                        else:
                            var3 = -0.05525921
        else:
            if input[3] < 4.1:
                if input[2] < 1012.1:
                    if input[7] < 10.0:
                        if input[7] < 7.0:
                            if input[8] < 14.0:
                                var3 = -0.057905007
                            else:
                                var3 = -0.046467807
                        else:
                            if input[6] < 23.895533:
                                var3 = 0.0071919686
                            else:
                                var3 = -0.03002485
                    else:
                        if input[7] < 11.0:
                            if input[4] < -0.9:
                                var3 = -0.04554438
                            else:
                                var3 = -0.06203232
                        else:
                            if input[3] < 0.1:
                                var3 = -0.061092924
                            else:
                                var3 = -0.06467363
                else:
                    if input[7] < 7.0:
                        if input[0] < 24.2:
                            if input[2] < 1013.4:
                                var3 = -0.02981489
                            else:
                                var3 = 0.05566279
                        else:
                            if input[5] < 29.0:
                                var3 = -0.05125637
                            else:
                                var3 = 0.024740672
                    else:
                        if input[7] < 10.0:
                            if input[2] < 1013.0:
                                var3 = 0.078572996
                            else:
                                var3 = 0.040192485
                        else:
                            if input[8] < 20.0:
                                var3 = -0.06334747
                            else:
                                var3 = 0.03539773
            else:
                if input[7] < 6.0:
                    if input[3] < 4.5:
                        if input[2] < 1010.4:
                            var3 = -0.03836517
                        else:
                            var3 = 0.046138506
                    else:
                        if input[2] < 1014.1:
                            if input[8] < 14.0:
                                var3 = -0.06421265
                            else:
                                var3 = -0.036088165
                        else:
                            if input[4] < -2.9:
                                var3 = 0.0031757974
                            else:
                                var3 = -0.045324836
                else:
                    if input[7] < 9.0:
                        if input[2] < 1018.1:
                            if input[5] < -14.0:
                                var3 = 0.032835424
                            else:
                                var3 = 0.08644659
                        else:
                            var3 = -0.061184406
                    else:
                        if input[3] < 5.0:
                            if input[5] < -6.0:
                                var3 = 0.020472223
                            else:
                                var3 = 0.09924885
                        else:
                            if input[4] < -1.2:
                                var3 = -0.05102126
                            else:
                                var3 = 0.014808844
    if input[6] < 22.796398:
        if input[0] < 11.1:
            if input[1] < 63.0:
                if input[7] < 3.0:
                    if input[0] < 0.6:
                        if input[0] < -1.5:
                            if input[6] < -15.032539:
                                var4 = 0.02765653
                            else:
                                var4 = -0.034409385
                        else:
                            if input[3] < -20.2:
                                var4 = -0.04200844
                            else:
                                var4 = 0.03071319
                    else:
                        if input[2] < 992.0:
                            if input[5] < 7.0:
                                var4 = -0.04479076
                            else:
                                var4 = 0.0794967
                        else:
                            if input[4] < 9.4:
                                var4 = 0.081107624
                            else:
                                var4 = -0.030037468
                else:
                    if input[7] < 12.0:
                        if input[2] < 1013.1:
                            if input[6] < -9.05217:
                                var4 = -0.032420386
                            else:
                                var4 = 0.0015206839
                        else:
                            if input[7] < 11.0:
                                var4 = 0.019975519
                            else:
                                var4 = 0.059864588
                    else:
                        if input[5] < -21.0:
                            if input[1] < 46.0:
                                var4 = 0.08369904
                            else:
                                var4 = 0.004838534
                        else:
                            if input[4] < 8.9:
                                var4 = 0.08864289
                            else:
                                var4 = -0.056157965
            else:
                if input[5] < 19.0:
                    if input[0] < 4.0:
                        if input[2] < 1035.4:
                            if input[8] < 7.0:
                                var4 = 0.00068680826
                            else:
                                var4 = -0.010314388
                        else:
                            if input[4] < -11.7:
                                var4 = -0.068094365
                            else:
                                var4 = 0.02767074
                    else:
                        if input[4] < -3.4:
                            if input[7] < 8.0:
                                var4 = 0.042489182
                            else:
                                var4 = 0.013162146
                        else:
                            if input[1] < 80.0:
                                var4 = 0.016176833
                            else:
                                var4 = 0.0011838357
                else:
                    if input[7] < 12.0:
                        if input[7] < 4.0:
                            if input[0] < 8.3:
                                var4 = 0.02642105
                            else:
                                var4 = 0.063058004
                        else:
                            if input[4] < 1.0:
                                var4 = 0.018336365
                            else:
                                var4 = -0.0094478605
                    else:
                        if input[4] < 7.6:
                            if input[0] < 1.7:
                                var4 = 0.03737449
                            else:
                                var4 = 0.07780802
                        else:
                            if input[3] < 2.8:
                                var4 = -0.059529047
                            else:
                                var4 = 0.05076586
        else:
            if input[1] < 47.0:
                if input[2] < 1016.1:
                    if input[5] < -27.0:
                        if input[8] < 12.0:
                            if input[2] < 1006.0:
                                var4 = 0.032543276
                            else:
                                var4 = 0.06981498
                        else:
                            if input[3] < 6.0:
                                var4 = 0.029365351
                            else:
                                var4 = -0.05213018
                    else:
                        if input[3] < -5.0:
                            if input[1] < 29.0:
                                var4 = 0.088054225
                            else:
                                var4 = 0.052613508
                        else:
                            if input[4] < 4.2:
                                var4 = 0.091756284
                            else:
                                var4 = 0.06400519
                else:
                    if input[4] < 6.1:
                        if input[5] < -6.0:
                            if input[3] < 3.8:
                                var4 = 0.05177295
                            else:
                                var4 = 0.028462261
                        else:
                            if input[6] < 14.091492:
                                var4 = 0.06345031
                            else:
                                var4 = -0.007229568
                    else:
                        if input[2] < 1026.2:
                            if input[3] < -2.9:
                                var4 = 0.048598986
                            else:
                                var4 = 0.018971613
                        else:
                            if input[7] < 9.0:
                                var4 = -0.04605173
                            else:
                                var4 = 0.08172144
            else:
                if input[7] < 4.0:
                    if input[6] < 14.167993:
                        if input[5] < 0.0:
                            if input[6] < 10.414949:
                                var4 = 0.055732924
                            else:
                                var4 = 0.021757575
                        else:
                            if input[1] < 78.0:
                                var4 = 0.07519543
                            else:
                                var4 = 0.050539542
                    else:
                        if input[6] < 21.898176:
                            if input[3] < -3.3:
                                var4 = 0.023381941
                            else:
                                var4 = -0.003912427
                        else:
                            if input[3] < -6.1:
                                var4 = 0.10957926
                            else:
                                var4 = -0.051651638
                else:
                    if input[0] < 20.0:
                        if input[2] < 1016.0:
                            if input[7] < 5.0:
                                var4 = 0.057394058
                            else:
                                var4 = 0.024141936
                        else:
                            if input[7] < 11.0:
                                var4 = 0.039262034
                            else:
                                var4 = 0.061175566
                    else:
                        if input[7] < 12.0:
                            if input[4] < 2.2:
                                var4 = 0.06601238
                            else:
                                var4 = 0.04077673
                        else:
                            if input[6] < 14.167993:
                                var4 = 0.0789837
                            else:
                                var4 = -0.019086458
    else:
        if input[3] < -4.0:
            if input[7] < 6.0:
                if input[0] < 27.8:
                    if input[6] < 23.05961:
                        if input[3] < -5.6:
                            var4 = 0.07850029
                        else:
                            var4 = 0.0029674591
                    else:
                        if input[2] < 1007.2:
                            if input[8] < 23.0:
                                var4 = -0.06059898
                            else:
                                var4 = 0.0076368377
                        else:
                            if input[0] < 26.1:
                                var4 = -0.03969294
                            else:
                                var4 = 0.040411364
                else:
                    var4 = -0.061148472
            else:
                if input[7] < 10.0:
                    if input[3] < -11.1:
                        if input[7] < 7.0:
                            if input[8] < 15.0:
                                var4 = 0.07363362
                            else:
                                var4 = -0.053153004
                        else:
                            var4 = 0.10550671
                    else:
                        if input[6] < 24.886425:
                            if input[7] < 9.0:
                                var4 = 0.0680567
                            else:
                                var4 = 0.017472582
                        else:
                            if input[5] < -8.0:
                                var4 = 0.043204825
                            else:
                                var4 = 0.10265561
                else:
                    if input[1] < 80.0:
                        var4 = -0.062403828
                    else:
                        if input[8] < 18.0:
                            if input[4] < -1.9:
                                var4 = -0.042161446
                            else:
                                var4 = 0.02822581
                        else:
                            var4 = -0.053523164
        else:
            if input[3] < 4.1:
                if input[2] < 1012.1:
                    if input[7] < 10.0:
                        if input[7] < 7.0:
                            if input[8] < 14.0:
                                var4 = -0.056266487
                            else:
                                var4 = -0.04459547
                        else:
                            if input[7] < 9.0:
                                var4 = -0.008830947
                            else:
                                var4 = -0.044999458
                    else:
                        if input[7] < 11.0:
                            if input[4] < -0.9:
                                var4 = -0.043627735
                            else:
                                var4 = -0.06037599
                        else:
                            if input[3] < 0.1:
                                var4 = -0.059436943
                            else:
                                var4 = -0.06313967
                else:
                    if input[7] < 7.0:
                        if input[0] < 24.2:
                            if input[2] < 1013.4:
                                var4 = -0.028095832
                            else:
                                var4 = 0.054162215
                        else:
                            if input[5] < 29.0:
                                var4 = -0.04934659
                            else:
                                var4 = 0.023171555
                    else:
                        if input[7] < 10.0:
                            if input[2] < 1013.0:
                                var4 = 0.07201644
                            else:
                                var4 = 0.03704868
                        else:
                            if input[8] < 20.0:
                                var4 = -0.061724205
                            else:
                                var4 = 0.035817575
            else:
                if input[7] < 6.0:
                    if input[2] < 1012.1:
                        var4 = -0.059348267
                    else:
                        if input[3] < 4.5:
                            var4 = 0.04554695
                        else:
                            if input[6] < 24.0:
                                var4 = -0.02409881
                            else:
                                var4 = -0.052653547
                else:
                    if input[7] < 10.0:
                        if input[5] < -11.0:
                            if input[6] < 24.886425:
                                var4 = 0.014499299
                            else:
                                var4 = 0.0810457
                        else:
                            if input[4] < 6.3:
                                var4 = 0.07764273
                            else:
                                var4 = -0.05867668
                    else:
                        if input[2] < 1014.1:
                            if input[4] < -5.8:
                                var4 = -0.01912116
                            else:
                                var4 = -0.064257555
                        else:
                            var4 = 0.0768374
    if input[6] < 22.796398:
        if input[0] < 10.2:
            if input[1] < 56.0:
                if input[7] < 3.0:
                    if input[0] < 0.6:
                        if input[1] < 38.0:
                            if input[2] < 1022.3:
                                var5 = 0.08686715
                            else:
                                var5 = -0.051794875
                        else:
                            if input[2] < 1015.0:
                                var5 = -0.03833477
                            else:
                                var5 = 0.014505321
                    else:
                        if input[3] < -18.5:
                            if input[7] < 2.0:
                                var5 = 0.045066822
                            else:
                                var5 = -0.057741888
                        else:
                            if input[5] < -26.0:
                                var5 = 0.054784793
                            else:
                                var5 = 0.082220905
                else:
                    if input[7] < 11.0:
                        if input[3] < 22.7:
                            if input[6] < -9.05217:
                                var5 = -0.02010362
                            else:
                                var5 = 0.011983903
                        else:
                            if input[7] < 7.0:
                                var5 = 0.054472
                            else:
                                var5 = -0.07091375
                    else:
                        if input[4] < 5.3:
                            if input[5] < -21.0:
                                var5 = 0.041953787
                            else:
                                var5 = 0.08298231
                        else:
                            if input[3] < -10.9:
                                var5 = -0.064376004
                            else:
                                var5 = 0.029825607
            else:
                if input[5] < 12.0:
                    if input[1] < 78.0:
                        if input[2] < 1012.2:
                            if input[7] < 11.0:
                                var5 = -0.0038934106
                            else:
                                var5 = 0.0144613525
                        else:
                            if input[1] < 66.0:
                                var5 = 0.030618606
                            else:
                                var5 = 0.0112559
                    else:
                        if input[7] < 10.0:
                            if input[7] < 3.0:
                                var5 = -0.008596948
                            else:
                                var5 = 0.017995564
                        else:
                            if input[6] < -15.032539:
                                var5 = 0.08062677
                            else:
                                var5 = -0.011863952
                else:
                    if input[7] < 12.0:
                        if input[7] < 5.0:
                            if input[0] < 7.6:
                                var5 = 0.016123809
                            else:
                                var5 = 0.041453917
                        else:
                            if input[2] < 983.0:
                                var5 = 0.04390016
                            else:
                                var5 = 0.0017396372
                    else:
                        if input[1] < 90.0:
                            if input[0] < 1.0:
                                var5 = 0.031614754
                            else:
                                var5 = 0.08005496
                        else:
                            if input[5] < 39.0:
                                var5 = 0.004459625
                            else:
                                var5 = 0.08553637
        else:
            if input[1] < 51.0:
                if input[5] < -19.0:
                    if input[8] < 11.0:
                        if input[6] < 18.985466:
                            if input[2] < 1021.2:
                                var5 = 0.059352636
                            else:
                                var5 = 0.032820847
                        else:
                            if input[1] < 50.0:
                                var5 = -0.04008533
                            else:
                                var5 = 0.045126203
                    else:
                        if input[6] < 9.07848:
                            if input[3] < 5.1:
                                var5 = 0.043800995
                            else:
                                var5 = 0.014072535
                        else:
                            if input[8] < 21.0:
                                var5 = 0.0016700088
                            else:
                                var5 = 0.043823075
                else:
                    if input[0] < 29.0:
                        if input[2] < 1020.1:
                            if input[3] < -6.0:
                                var5 = 0.042539295
                            else:
                                var5 = 0.06409536
                        else:
                            if input[7] < 4.0:
                                var5 = 0.06528049
                            else:
                                var5 = 0.025547711
                    else:
                        if input[7] < 4.0:
                            if input[4] < 3.4:
                                var5 = -0.03989828
                            else:
                                var5 = 0.053416003
                        else:
                            if input[7] < 11.0:
                                var5 = 0.08949445
                            else:
                                var5 = -0.00997839
            else:
                if input[8] < 8.0:
                    if input[1] < 84.0:
                        if input[0] < 30.0:
                            if input[5] < -1.0:
                                var5 = 0.043734852
                            else:
                                var5 = 0.05797797
                        else:
                            if input[7] < 6.0:
                                var5 = -0.058561273
                            else:
                                var5 = 0.008897898
                    else:
                        if input[5] < 29.0:
                            if input[7] < 10.0:
                                var5 = 0.03269448
                            else:
                                var5 = 0.007503204
                        else:
                            if input[3] < -1.5:
                                var5 = 0.0721361
                            else:
                                var5 = 0.03897679
                else:
                    if input[2] < 1016.0:
                        if input[7] < 3.0:
                            if input[6] < 17.10717:
                                var5 = 0.023145853
                            else:
                                var5 = -0.020535758
                        else:
                            if input[7] < 12.0:
                                var5 = 0.029912008
                            else:
                                var5 = -0.007409543
                    else:
                        if input[7] < 11.0:
                            if input[8] < 20.0:
                                var5 = 0.031700786
                            else:
                                var5 = 0.043094035
                        else:
                            if input[1] < 82.0:
                                var5 = 0.061963446
                            else:
                                var5 = 0.021508034
    else:
        if input[3] < -4.0:
            if input[7] < 6.0:
                if input[0] < 27.8:
                    if input[6] < 23.05961:
                        if input[2] < 1007.2:
                            var5 = 0.07643934
                        else:
                            var5 = 0.0023165795
                    else:
                        if input[2] < 1007.2:
                            if input[8] < 23.0:
                                var5 = -0.05928689
                            else:
                                var5 = 0.0082688425
                        else:
                            if input[0] < 26.1:
                                var5 = -0.03840217
                            else:
                                var5 = 0.039589852
                else:
                    var5 = -0.060018238
            else:
                if input[7] < 10.0:
                    if input[3] < -11.1:
                        if input[7] < 7.0:
                            if input[8] < 15.0:
                                var5 = 0.06992146
                            else:
                                var5 = -0.05266426
                        else:
                            var5 = 0.09803445
                    else:
                        if input[6] < 24.886425:
                            if input[7] < 9.0:
                                var5 = 0.06290519
                            else:
                                var5 = 0.015886083
                        else:
                            if input[5] < -8.0:
                                var5 = 0.040179834
                            else:
                                var5 = 0.09534132
                else:
                    if input[1] < 80.0:
                        var5 = -0.061043423
                    else:
                        if input[8] < 14.0:
                            if input[4] < -1.9:
                                var5 = -0.040644303
                            else:
                                var5 = 0.051335573
                        else:
                            if input[7] < 11.0:
                                var5 = 0.010186213
                            else:
                                var5 = -0.054648068
        else:
            if input[3] < 4.1:
                if input[2] < 1012.1:
                    if input[7] < 10.0:
                        if input[7] < 7.0:
                            if input[8] < 14.0:
                                var5 = -0.054767188
                            else:
                                var5 = -0.04268502
                        else:
                            if input[6] < 23.895533:
                                var5 = 0.008417117
                            else:
                                var5 = -0.02731199
                    else:
                        if input[7] < 11.0:
                            if input[4] < -0.9:
                                var5 = -0.0420033
                            else:
                                var5 = -0.058983613
                        else:
                            if input[3] < 0.1:
                                var5 = -0.058028307
                            else:
                                var5 = -0.061851628
                else:
                    if input[7] < 7.0:
                        if input[0] < 24.2:
                            if input[2] < 1013.4:
                                var5 = -0.026750479
                            else:
                                var5 = 0.051775265
                        else:
                            if input[5] < 29.0:
                                var5 = -0.04761487
                            else:
                                var5 = 0.022501677
                    else:
                        if input[7] < 10.0:
                            if input[2] < 1013.0:
                                var5 = 0.067651555
                            else:
                                var5 = 0.034353234
                        else:
                            if input[8] < 20.0:
                                var5 = -0.06047071
                            else:
                                var5 = 0.034894492
            else:
                if input[7] < 6.0:
                    if input[2] < 1012.1:
                        var5 = -0.057866927
                    else:
                        if input[3] < 4.5:
                            var5 = 0.044492614
                        else:
                            if input[6] < 24.0:
                                var5 = -0.022887688
                            else:
                                var5 = -0.05146878
                else:
                    if input[7] < 9.0:
                        if input[2] < 1018.1:
                            if input[2] < 1010.2:
                                var5 = 0.02373472
                            else:
                                var5 = 0.074283205
                        else:
                            var5 = -0.060014553
                    else:
                        if input[3] < 5.0:
                            if input[5] < -6.0:
                                var5 = 0.016331458
                            else:
                                var5 = 0.08686023
                        else:
                            if input[2] < 1015.7:
                                var5 = -0.017646141
                            else:
                                var5 = 0.09061357
    if input[6] < 22.796398:
        if input[0] < 11.1:
            if input[1] < 56.0:
                if input[7] < 3.0:
                    if input[0] < 0.6:
                        if input[1] < 38.0:
                            if input[2] < 1022.3:
                                var6 = 0.08101018
                            else:
                                var6 = -0.05082184
                        else:
                            if input[0] < -0.3:
                                var6 = -0.032895174
                            else:
                                var6 = 0.022759162
                    else:
                        if input[2] < 989.9:
                            if input[8] < 20.0:
                                var6 = -0.0636672
                            else:
                                var6 = 0.0013371885
                        else:
                            if input[5] < -29.0:
                                var6 = 0.049825903
                            else:
                                var6 = 0.075500004
                else:
                    if input[7] < 11.0:
                        if input[5] < -2.0:
                            if input[2] < 1013.1:
                                var6 = -0.005414955
                            else:
                                var6 = 0.02551882
                        else:
                            if input[6] < -2.6669948:
                                var6 = -0.027327878
                            else:
                                var6 = 0.010987642
                    else:
                        if input[4] < 5.6:
                            if input[5] < -20.0:
                                var6 = 0.042197745
                            else:
                                var6 = 0.077711724
                        else:
                            if input[3] < -14.0:
                                var6 = -0.06662209
                            else:
                                var6 = 0.03341025
            else:
                if input[5] < 12.0:
                    if input[0] < 9.1:
                        if input[7] < 6.0:
                            if input[7] < 3.0:
                                var6 = -0.0019541138
                            else:
                                var6 = 0.017288182
                        else:
                            if input[2] < 977.3:
                                var6 = 0.06228835
                            else:
                                var6 = -0.004676215
                    else:
                        if input[2] < 1015.4:
                            if input[4] < -5.1:
                                var6 = 0.05590221
                            else:
                                var6 = 0.0024873007
                        else:
                            if input[3] < 12.0:
                                var6 = 0.033025227
                            else:
                                var6 = 0.00062149746
                else:
                    if input[2] < 1011.1:
                        if input[0] < 2.4:
                            if input[3] < -32.4:
                                var6 = -0.029769767
                            else:
                                var6 = 0.0023744775
                        else:
                            if input[7] < 4.0:
                                var6 = 0.027022034
                            else:
                                var6 = 0.0068453806
                    else:
                        if input[1] < 83.0:
                            if input[7] < 3.0:
                                var6 = 0.070008054
                            else:
                                var6 = 0.028735146
                        else:
                            if input[4] < -3.0:
                                var6 = 0.035801955
                            else:
                                var6 = 0.008598434
        else:
            if input[1] < 47.0:
                if input[2] < 1017.1:
                    if input[5] < -27.0:
                        if input[8] < 12.0:
                            if input[2] < 1006.0:
                                var6 = 0.025232837
                            else:
                                var6 = 0.058493532
                        else:
                            if input[6] < 8.158176:
                                var6 = 0.033121705
                            else:
                                var6 = 0.00008192959
                    else:
                        if input[0] < 31.0:
                            if input[4] < 3.1:
                                var6 = 0.06626248
                            else:
                                var6 = 0.043752678
                        else:
                            if input[7] < 11.0:
                                var6 = 0.08425788
                            else:
                                var6 = -0.008795287
                else:
                    if input[5] < -6.0:
                        if input[7] < 9.0:
                            if input[8] < 7.0:
                                var6 = 0.041010536
                            else:
                                var6 = 0.015071101
                        else:
                            if input[7] < 12.0:
                                var6 = 0.05268094
                            else:
                                var6 = 0.020765519
                    else:
                        if input[4] < 6.1:
                            if input[6] < 13.309319:
                                var6 = 0.05294888
                            else:
                                var6 = -0.0130818365
                        else:
                            if input[3] < 0.4:
                                var6 = 0.037520397
                            else:
                                var6 = -0.0323196
            else:
                if input[7] < 4.0:
                    if input[6] < 14.167993:
                        if input[5] < 0.0:
                            if input[6] < 9.685911:
                                var6 = 0.04902644
                            else:
                                var6 = 0.0209354
                        else:
                            if input[1] < 78.0:
                                var6 = 0.06487348
                            else:
                                var6 = 0.04315485
                    else:
                        if input[6] < 21.898176:
                            if input[3] < -3.3:
                                var6 = 0.020459529
                            else:
                                var6 = -0.0048994073
                        else:
                            if input[3] < -6.1:
                                var6 = 0.10069028
                            else:
                                var6 = -0.049750753
                else:
                    if input[0] < 20.0:
                        if input[2] < 1016.0:
                            if input[7] < 5.0:
                                var6 = 0.049197994
                            else:
                                var6 = 0.019831734
                        else:
                            if input[7] < 11.0:
                                var6 = 0.032911994
                            else:
                                var6 = 0.05201298
                    else:
                        if input[7] < 12.0:
                            if input[4] < 2.2:
                                var6 = 0.056568097
                            else:
                                var6 = 0.03398755
                        else:
                            if input[6] < 14.167993:
                                var6 = 0.06737935
                            else:
                                var6 = -0.019620124
    else:
        if input[3] < -4.0:
            if input[7] < 6.0:
                if input[0] < 27.8:
                    if input[6] < 23.05961:
                        if input[2] < 1007.2:
                            var6 = 0.074369706
                        else:
                            var6 = 0.0028170948
                    else:
                        if input[2] < 1007.2:
                            if input[8] < 23.0:
                                var6 = -0.058062416
                            else:
                                var6 = 0.008595317
                        else:
                            if input[0] < 26.1:
                                var6 = -0.037399303
                            else:
                                var6 = 0.038875256
                else:
                    var6 = -0.05875125
            else:
                if input[7] < 10.0:
                    if input[3] < -11.1:
                        if input[7] < 7.0:
                            if input[8] < 15.0:
                                var6 = 0.066992186
                            else:
                                var6 = -0.052149523
                        else:
                            var6 = 0.09194752
                    else:
                        if input[6] < 24.886425:
                            if input[7] < 9.0:
                                var6 = 0.05843423
                            else:
                                var6 = 0.014284599
                        else:
                            if input[5] < -8.0:
                                var6 = 0.03788546
                            else:
                                var6 = 0.08932358
                else:
                    if input[1] < 80.0:
                        var6 = -0.060035508
                    else:
                        if input[8] < 18.0:
                            if input[4] < -1.9:
                                var6 = -0.039759465
                            else:
                                var6 = 0.02755316
                        else:
                            var6 = -0.05124694
        else:
            if input[3] < 4.1:
                if input[2] < 1012.1:
                    if input[7] < 10.0:
                        if input[7] < 7.0:
                            if input[8] < 14.0:
                                var6 = -0.053299863
                            else:
                                var6 = -0.041013863
                        else:
                            if input[7] < 9.0:
                                var6 = -0.0067052604
                            else:
                                var6 = -0.042306162
                    else:
                        if input[7] < 11.0:
                            if input[4] < -0.9:
                                var6 = -0.040400844
                            else:
                                var6 = -0.057670165
                        else:
                            if input[3] < 0.1:
                                var6 = -0.056682676
                            else:
                                var6 = -0.060647
                else:
                    if input[7] < 7.0:
                        if input[0] < 24.2:
                            if input[2] < 1013.4:
                                var6 = -0.025618834
                            else:
                                var6 = 0.049619757
                        else:
                            if input[2] < 1012.3:
                                var6 = 0.017922329
                            else:
                                var6 = -0.04607873
                    else:
                        if input[7] < 10.0:
                            if input[2] < 1013.0:
                                var6 = 0.06393264
                            else:
                                var6 = 0.031888068
                        else:
                            if input[8] < 20.0:
                                var6 = -0.05930504
                            else:
                                var6 = 0.03405596
            else:
                if input[7] < 6.0:
                    if input[2] < 1012.1:
                        var6 = -0.056540918
                    else:
                        if input[3] < 4.5:
                            var6 = 0.043420535
                        else:
                            if input[6] < 24.0:
                                var6 = -0.021670273
                            else:
                                var6 = -0.050320234
                else:
                    if input[7] < 10.0:
                        if input[5] < -12.0:
                            if input[6] < 24.886425:
                                var6 = 0.006622599
                            else:
                                var6 = 0.07431599
                        else:
                            if input[4] < 6.5:
                                var6 = 0.066564105
                            else:
                                var6 = -0.056333292
                    else:
                        if input[2] < 1014.1:
                            if input[4] < -5.8:
                                var6 = -0.017620018
                            else:
                                var6 = -0.06254157
                        else:
                            var6 = 0.068211764
    if input[6] < 22.796398:
        if input[0] < 10.2:
            if input[1] < 54.0:
                if input[7] < 3.0:
                    if input[0] < 0.0:
                        if input[1] < 38.0:
                            if input[3] < 0.6:
                                var7 = 0.08935096
                            else:
                                var7 = -0.016495446
                        else:
                            if input[5] < -27.0:
                                var7 = -0.050615575
                            else:
                                var7 = 0.012170965
                    else:
                        if input[3] < 30.2:
                            if input[3] < -18.5:
                                var7 = -0.020332914
                            else:
                                var7 = 0.068284586
                        else:
                            if input[4] < 2.0:
                                var7 = -0.06262977
                            else:
                                var7 = 0.06759133
                else:
                    if input[7] < 11.0:
                        if input[5] < -2.0:
                            if input[2] < 1013.1:
                                var7 = -0.008123115
                            else:
                                var7 = 0.02444592
                        else:
                            if input[3] < -10.2:
                                var7 = 0.0117597645
                            else:
                                var7 = -0.030781034
                    else:
                        if input[4] < 5.3:
                            if input[5] < -37.0:
                                var7 = 0.019942665
                            else:
                                var7 = 0.06908084
                        else:
                            if input[1] < 43.0:
                                var7 = 0.07475578
                            else:
                                var7 = -0.046476256
            else:
                if input[5] < 12.0:
                    if input[1] < 78.0:
                        if input[2] < 1012.2:
                            if input[6] < -1.1091462:
                                var7 = -0.008508982
                            else:
                                var7 = 0.007007794
                        else:
                            if input[1] < 66.0:
                                var7 = 0.027109176
                            else:
                                var7 = 0.009798861
                    else:
                        if input[7] < 10.0:
                            if input[7] < 3.0:
                                var7 = -0.007711129
                            else:
                                var7 = 0.016259437
                        else:
                            if input[6] < -15.032539:
                                var7 = 0.073888734
                            else:
                                var7 = -0.010702396
                else:
                    if input[7] < 12.0:
                        if input[7] < 5.0:
                            if input[0] < 7.4:
                                var7 = 0.013397783
                            else:
                                var7 = 0.035486303
                        else:
                            if input[2] < 983.0:
                                var7 = 0.04038846
                            else:
                                var7 = 0.00064739137
                    else:
                        if input[1] < 90.0:
                            if input[0] < 1.0:
                                var7 = 0.028822575
                            else:
                                var7 = 0.07324793
                        else:
                            if input[5] < 37.0:
                                var7 = 0.0021325515
                            else:
